a -0.035835 0.77844 -0.51806 0.080682 -0.13173 -0.28606 -4.2485 0.81827 0.24034 -0.69057 0.21556 -0.12434 -0.54229 -0.15138 -0.13591 -0.5348 0.34595 -0.22926 -0.013789 0.047816 -0.041427 -0.41058 0.10172 -0.097093 -0.00064646 -0.026877 -0.23473 -0.06019 -0.3141 -0.5624 -0.079395 -0.22116 0.098952 0.089909 -0.068699 0.30787 0.35724 0.27748 0.21167 -0.020939 -0.48188 -0.14981 -0.19693 -0.19514 -0.029672 -0.2862 0.059519 -0.15534 -0.041982 0.31305 -0.10834 0.74492 -0.26733 0.090418 0.32783 -0.35072 0.0019352 -0.16018 0.35431 -0.066866 -0.094903 -0.026866 -0.44347 0.13844 0.14952 0.34483 0.12546 0.4631 -0.0058689 -0.41446 0.12612 0.13602 -0.43715 0.096268 -0.18979 -0.75418 0.35777 -0.017479 -0.21907 -0.18382 -0.27002 -0.54582 -0.45421 -0.54994 -0.43079 -0.11863 -0.47369 -0.099825 -0.14261 -0.081525 0.33486 -0.4146 -0.079636 0.30339 -0.42575 -0.34956 -2.7357 -0.74104 0.2163 0.42723 0.035431 -0.05464 0.70669 -0.29739 0.0083191 -0.19281 0.32391 0.0087548 -0.16015 -0.059082 0.17503 0.35089 -0.01354 -0.33457 -0.051774 0.01569 1.029 0.044273 0.44906 -0.29036 -0.78684 -0.060001 0.11784 -0.1194 0.20565 -0.30654 -0.10883 -0.076856 -0.027208 -0.0032139 -0.19201 0.13827 0.15239 -0.085574 0.25771 0.035583 0.25709 -0.13264 0.64585 0.539 0.09338 0.17612 0.45444 -0.30252 -0.51751 -0.0077072 0.52078 -0.22996 0.51313 0.6185 -0.271 0.18719 0.3466 -0.27276 0.34786 -0.31713 0.13038 0.021235 -0.25821 -0.14553 0.65942 -0.19469 -0.17672 -0.17879 -0.29119 0.2739 -0.074949 -0.35214 0.12527 -0.1515 0.16561 -0.35536 0.26169 -0.66952 -0.037627 0.24556 -0.47338 -0.19609 -0.16514 0.18519 0.74366 0.099546 -0.30843 0.082241 -0.14698 -0.53421 -0.0061243 0.57767 0.34576 -0.16245 0.062227 -0.274 -0.10936 0.17974 0.32881 -0.0009029 0.072287 0.11748 0.25142 0.062339 0.44903 -0.00094289 0.18164 -0.29528 0.17274 0.41538 -0.1912 0.14755 0.39594 -0.16013 0.064232 -0.32972 0.2003 0.31493 -0.43744 -0.13939 -0.10015 -0.20848 -0.22608 -0.048169 0.20638 0.51249 -0.341 -0.004226 -3.4638 -0.12878 -0.47151 -0.42011 -0.04058 0.042346 0.11615 -0.041935 0.038201 -0.24746 -0.093521 0.44521 -0.044714 0.32429 -0.13014 -0.3915 -0.461 -0.070122 -0.35223 0.38686 -0.25869 0.47497 0.076472 0.0085433 -0.4047 0.66155 -0.23044 -0.021724 -0.021885 -0.00054206 0.0065346 -0.074982 -0.59198 -0.61204 -0.14 0.19463 -0.17722 -0.51057 0.40299 0.2675 -0.29331 -0.18907 -0.37621 -0.4179 0.54875 0.070255 0.80564 -0.3841 -0.42401 -0.41384 0.43875 -0.29252 -0.091183 0.22039 -0.18372 -0.41012 0.62847 0.21983 -0.079124 0.019266 0.85543 -0.13378 0.60141 0.67718 -0.33309 -0.2561 0.084727 0.10459 -0.25359 -0.12002 -0.38965 -0.2878 0.0036703 0.022321 -0.31591 -0.35608
is 0.11396 0.34503 -0.055064 -0.20192 0.20848 -0.09699 -4.0236 0.95046 -0.060803 -0.8326 0.39128 0.080882 0.19049 -0.043595 -0.39001 -0.34955 0.11262 -0.14287 -0.032761 0.067908 0.17553 0.31537 0.28348 0.10421 0.35078 -0.032335 -0.36486 -0.34773 -0.20653 -0.0396 -0.23032 -0.077951 0.23275 -0.30656 -0.42728 0.11155 0.56584 0.18156 0.24105 0.26077 0.10482 -0.17409 -0.27386 -0.19085 0.001336 0.15198 -0.085442 -0.45299 -0.25952 -0.10323 0.16033 0.84934 -0.14611 -0.097733 -0.10756 -0.64231 -0.086497 0.19817 -0.145 0.081023 -0.51695 -0.054831 -0.011848 0.14594 0.27602 0.2617 0.47357 0.080774 0.024029 -0.20884 -0.19015 0.13206 -0.3157 -0.38179 -0.099757 -0.47159 0.38781 -0.15529 0.14584 0.061407 -0.34411 -1.2493 -0.55997 -0.51856 0.25404 0.23224 -0.26082 -0.20301 0.091036 -0.15094 0.054542 0.12856 -0.25977 0.57906 0.43496 0.11506 -2.4913 -0.074039 -0.22596 -0.078059 0.37 0.14267 0.29842 0.25159 0.18929 -0.21655 -0.06477 -0.31406 -0.22593 -0.035533 -0.006801 -0.19788 -0.3362 0.11342 -0.26645 0.2006 0.53312 -0.17071 0.29388 -0.1544 -0.32386 -0.23815 -0.074312 -0.0023955 0.31235 0.023316 0.35249 -0.37121 -0.025591 0.11688 -0.1956 -0.037899 -0.059021 0.12694 0.015057 -0.059807 0.11488 0.1346 0.38488 -0.0070541 0.09581 0.26326 0.31792 -0.020803 -0.57065 0.2096 0.34243 -0.13416 0.15929 0.049954 -0.31797 0.092282 -0.36187 -0.15156 0.20105 -0.49372 -0.24939 0.52548 -0.067412 0.0029721 0.48416 -0.29553 -0.1868 0.057142 -0.038733 0.11757 -0.13336 0.2471 0.72767 -0.3194 0.43514 -0.15875 0.20184 0.093158 -0.19095 0.73837 0.3119 -0.18697 0.11706 -0.19537 0.04848 -0.13815 0.083468 0.10713 0.22465 -0.65526 0.51878 0.24839 0.13339 -0.0076668 -0.21111 0.33498 0.42292 -0.19456 0.565 0.45421 0.16063 -0.25718 0.43721 -0.42303 0.097476 -0.015056 0.064036 -0.087359 -0.0071586 0.38121 0.33028 0.29676 0.23904 -0.14327 -0.1011 -0.16298 0.15252 0.066246 0.087008 0.36414 0.23292 -0.54527 -0.17597 -0.57629 -0.27825 -0.21048 0.31815 -0.11145 -3.3707 -0.57578 -0.31548 -0.21493 0.06938 -0.29779 -0.12619 0.40149 -0.1364 -0.60166 0.013699 -0.14001 0.50957 0.034518 -0.082044 -0.15225 0.054835 -0.30277 -0.22071 0.22622 0.26695 -0.032464 0.055506 -0.071883 -0.12037 0.21999 -0.11196 -0.0095203 -0.054642 0.12505 0.38358 0.027555 0.052245 -0.014396 0.13378 0.1317 0.14486 -0.20949 -0.28146 0.063763 0.098775 0.12514 -0.76178 -0.12258 0.21425 0.021548 0.40072 -0.18433 -0.17931 0.079434 -0.62864 0.16945 0.15069 0.25897 -0.31789 -0.29582 0.81134 -0.45501 -0.2029 0.068279 -0.06824 0.29112 0.32883 0.20016 -0.23233 -0.59309 -0.085202 -0.018587 -0.25809 0.21739 0.21592 0.081633 0.12224 -0.37247 0.2879 -0.18029
this 0.19223 0.28554 0.012629 -0.22884 0.94052 -0.36277 -4.3098 0.32853 -0.5995 -0.57731 0.21549 -0.043195 -0.07956 0.38541 0.094607 -0.5848 -0.28964 -0.046042 0.40985 0.34588 -0.0048096 -0.071439 -2.2594e-05 -0.067917 -0.18811 0.054618 -0.37226 0.58703 -0.24184 0.48544 -0.37553 0.32624 0.38935 0.013727 -0.39483 0.048044 0.54547 -0.07477 0.63441 -0.11595 0.21209 -0.20617 -0.29041 -0.23704 0.0041064 -0.099282 0.11893 -0.0052992 -0.11422 -0.090578 0.26124 0.83377 -0.11109 -0.32852 0.50166 -0.27973 0.2668 0.32922 0.23889 0.35908 0.14506 -0.091163 -0.23354 -0.24835 -0.24759 0.15085 -0.17141 -0.027307 -0.068021 -0.48302 0.002203 0.26988 -0.23518 -0.51465 -0.15938 0.023432 -0.0087119 0.58002 -0.13408 0.19655 -0.22713 -0.94542 -0.57163 -0.38737 -0.015954 -0.3288 0.40041 -0.2934 -0.030269 0.010723 0.0076222 0.14407 0.17482 0.17781 0.057853 0.026689 -2.6229 0.0094032 -0.39522 0.40077 -0.13103 -0.2146 0.086043 -0.25722 -0.060464 -0.46972 0.59448 -0.035612 -0.10569 -0.21069 -0.43147 -0.05884 -0.44765 -0.24497 -0.40401 0.51194 0.64938 0.099985 -0.1744 0.03064 0.037559 0.23209 0.39574 -0.010696 0.055671 -0.25155 0.7897 -0.28996 0.24901 -0.058746 0.24207 0.13273 -0.16214 -0.14803 0.66051 -0.091246 -0.28693 0.072021 0.31262 0.27137 0.17579 0.22921 0.079973 -0.10998 -0.34781 -0.16894 0.19642 -0.13928 0.65164 -0.13523 -0.26213 -0.043558 -0.04451 0.068151 0.054906 0.19557 -0.040857 -0.16588 -0.48647 -0.17558 0.8936 0.22782 0.011271 -0.16246 0.10318 0.33445 -0.42085 0.18572 0.36851 0.060591 -0.074437 -0.49661 -0.06022 -0.50823 -0.0014295 0.18659 -0.41602 0.018366 -0.194 -0.39097 0.50068 0.62149 0.13417 -0.12072 -0.16534 -0.24194 0.066933 -0.2801 0.25045 0.016149 -0.31262 0.19346 -0.23842 -0.47896 0.014039 0.070351 0.30635 -0.049576 0.66179 -0.068762 0.10011 0.040609 0.060913 0.12566 0.078004 -0.24195 0.018287 0.22682 0.49361 -0.13654 -0.0082092 0.26979 -0.088347 -0.027315 -0.32371 0.15109 -0.16104 0.12131 -0.28483 -0.07217 -0.007507 -0.23997 0.04046 -0.13108 -3.1533 -0.09568 -0.21382 -0.49716 0.22424 -0.09894 0.31707 -0.30451 0.25346 -0.40179 -0.39673 -0.024259 -0.31565 0.36771 -0.47916 -0.3794 -0.01212 0.098915 -0.88366 0.26876 -0.064834 -0.5536 0.086207 0.53916 0.215 0.36043 -0.072196 -0.52434 0.3381 0.0085474 0.5733 0.19011 -0.1348 -0.11589 -0.45145 -0.40165 -0.070097 -0.31569 -0.42273 0.23431 0.3653 -0.28453 -0.17764 0.4577 -0.081625 -0.10191 -0.05665 0.41565 -0.13205 -0.12703 -0.27067 -0.0062007 0.40564 0.11124 0.22112 -0.18344 0.88097 -0.025645 -0.35957 0.088658 0.10021 -0.24741 0.013705 0.12519 -0.36404 -0.30042 0.10586 0.48186 0.032621 -0.18641 -0.1046 -0.30677 -0.30053 -0.25577 -0.20713 -0.021695
test -0.64993 0.28869 0.083755 -0.023966 -0.10939 -0.047413 -3.4514 0.99351 -0.36717 0.3352 0.14437 -0.44932 0.094942 -0.057758 0.12988 0.010203 -0.36854 -0.91299 0.0036395 0.23154 -0.025052 0.22579 0.69554 -0.3195 -0.25382 -0.16665 0.42784 0.073101 0.31036 -0.17494 0.39473 -0.64643 -0.66226 -0.58765 0.31808 -0.34507 -0.1608 -0.3166 -0.32227 0.22 -0.17808 -0.36562 -0.41187 0.48864 0.40647 -0.17907 0.11068 0.0036734 -0.21948 -0.14448 -0.15748 -0.61767 0.29376 -0.14269 0.058194 -0.076125 0.33628 0.5489 -0.083655 -0.41972 -0.49682 -0.063971 -0.066617 0.49236 -0.11885 0.48845 -0.17401 -0.36589 0.47542 0.67774 0.021966 0.22765 0.27264 -0.047087 0.18165 0.38887 -0.31329 0.064967 -0.24925 0.099746 0.5044 -0.28122 -0.13016 0.20725 -0.63774 -0.13609 0.37784 0.070422 0.46175 0.22212 0.060614 -0.33495 0.16305 0.27474 -0.026835 0.38953 -2.2123 0.13037 0.72723 0.66163 0.37716 -0.38147 -0.05308 0.0095917 0.12776 -0.19893 -0.099808 0.31594 0.019923 -0.086065 -0.051647 -0.082155 -0.25162 -0.13961 0.24908 0.31845 0.33294 0.020215 -0.75006 0.46924 0.017439 0.088622 0.42649 -0.33572 0.71414 -0.55343 -0.18669 1.1124 -0.4474 0.10768 0.83227 -0.086711 0.40895 -0.3683 -0.1364 -0.11855 0.071247 -0.2758 0.23657 0.37512 0.22003 0.045582 0.1899 0.48645 -0.38638 0.006267 0.34616 -0.40494 -0.076974 -0.1458 -0.11724 -0.62706 0.18305 -0.11239 -0.56444 -0.18221 0.35149 -0.52533 0.4412 -0.034085 0.098179 0.048208 0.36101 0.35032 0.1444 -0.018781 0.2019 0.18084 0.13933 0.26059 0.54014 0.1047 0.016172 -0.17774 -0.28627 -0.040006 -0.26646 0.30949 0.10241 0.2412 0.27259 0.097178 0.10537 0.12505 -0.47436 -0.15405 -0.043551 -0.33551 -0.34048 0.96047 0.054378 0.33971 0.088303 0.14677 -0.35814 -0.28587 0.35668 -0.24337 0.51844 -0.063547 0.058593 0.045842 -0.68118 0.18236 0.061717 -0.053718 -0.11207 -0.3752 0.33106 0.31835 0.52178 -0.011667 -0.33354 -0.3304 0.77383 -0.30769 -0.2202 -0.4477 0.037314 -0.50706 -0.31167 0.29403 -0.10323 -0.29986 -2.2975 -0.085398 -0.22356 0.21508 0.27074 0.029861 -0.26162 -0.025176 0.32097 -0.31293 -0.021393 -0.072483 -0.36186 -0.46774 0.042035 -0.48212 0.00074029 -0.35406 0.23243 -0.40708 -0.21461 -0.2226 0.763 0.01092 -0.81292 0.027083 0.47789 0.1746 0.021162 -0.41656 0.25016 -0.60889 0.1939 -0.55385 0.1551 0.33809 0.27572 -0.15243 0.30738 -0.1709 0.17129 -0.95921 0.033307 -0.069163 0.10316 0.41306 0.38806 -0.10008 0.75574 0.18752 -0.31791 0.2146 0.17775 0.37525 -0.12381 0.13065 -0.25067 -0.19066 -0.36484 -0.35294 -0.32484 0.04247 -0.19473 -0.34364 -0.27103 0.21267 -0.060147 0.21961 -0.023032 -0.11759 0.23828 0.6119 -0.051104 -0.26479 -0.12181 -0.18481
